{"nh":100,"ns":2,"na":3,"net":{"W1":{"n":100,"d":2,"w":{"0":1.7686691385077302,"1":-1.3509743826589413,"2":0.8972628411656992,"3":-0.6093894394701163,"4":-0.8325602874527979,"5":0.585832651689498,"6":-0.5111710490978799,"7":0.2705440163770432,"8":0.3392425244918458,"9":-0.18299261365387828,"10":-0.9247288118352122,"11":0.6667302831270634,"12":-1.1311068204247023,"13":0.8480268639121588,"14":0.9685692675064557,"15":-0.7113545938837821,"16":0.6577310416826124,"17":-0.44963138786714524,"18":2.8926674037231432,"19":-3.560351174848016,"20":0.7175313968757325,"21":-0.49163006628777417,"22":-1.6079253725474614,"23":1.2621907999340276,"24":0.9448919922413718,"25":-0.6911467873431919,"26":-0.7680260384296174,"27":0.47394229184612663,"28":-0.2698880532723172,"29":0.09374398079700605,"30":-0.6813777654958622,"31":0.4768506642775065,"32":1.2826022524405671,"33":-0.9768296822138121,"34":-0.9267451488597443,"35":0.6722714972888205,"36":1.3125379516732443,"37":-1.009127251370418,"38":0.646597334322368,"39":-0.4417090973083799,"40":-0.8311577744557481,"41":0.5891038743436822,"42":0.8971126495755443,"43":-0.6438268483564502,"44":0.7506930698054692,"45":-0.5343139478119953,"46":0.8491899551326071,"47":-0.6081255113122203,"48":-0.18478357251409402,"49":-0.18898215815456224,"50":0.4725688672142496,"51":-0.27218278382221167,"52":0.30891798184050656,"53":-0.12704868262018032,"54":-0.6011206445309976,"55":0.3427438523548556,"56":-0.41590972204890664,"57":0.17734764670316674,"58":-0.9978573519144442,"59":0.7313626639998111,"60":-0.7471291604016052,"61":0.4637158254805591,"62":-0.9884533819285775,"63":0.7285909640792585,"64":0.7855957764330965,"65":-0.5150871273920706,"66":-0.02961518748213103,"67":-0.6698046294747471,"68":-0.4618801661050382,"69":0.23635438506835513,"70":-0.5338307700282542,"71":0.2819400496540168,"72":-2.521925686948492,"73":2.0021991363352893,"74":-2.099178838462869,"75":1.699204321561906,"76":0.8757955426346304,"77":-0.6284107656050512,"78":0.3711919667134208,"79":-0.12608326885739257,"80":1.0242949805269215,"81":-0.7031253618347018,"82":-0.28798399631841726,"83":0.12565276488746904,"84":0.8224276669081768,"85":-0.5821446233598245,"86":0.730058251191718,"87":-0.5114591891416531,"88":0.7995977114464068,"89":-0.564368704117745,"90":0.8130014712960905,"91":-0.5953907619858537,"92":-0.9735212015615093,"93":0.6626206868429396,"94":-1.0366888207284495,"95":0.7356060087607821,"96":-1.3488791981288935,"97":1.041957444347494,"98":-0.8122273505703886,"99":0.5406011748295432,"100":0.7068983392621819,"101":-0.4416779145460985,"102":-0.4003024712994705,"103":0.19219084917973103,"104":-0.37542154191579585,"105":0.20760945812309106,"106":1.1644716884405055,"107":-0.8753905002950091,"108":0.7972038234201461,"109":-0.5231912380714118,"110":0.6216739612964599,"111":-0.40366018837127426,"112":-0.9643779814896363,"113":0.7019787163494521,"114":-0.9234705254686126,"115":0.6125083838132769,"116":0.2680623005746342,"117":-0.08288738863143978,"118":1.0926587078324654,"119":-0.7595934152460813,"120":0.08734581979640972,"121":-1.1163108528601147,"122":-0.8967838142029876,"123":0.668021391844382,"124":0.8799497352565516,"125":-0.6444464060627751,"126":0.934437417803329,"127":-0.6598461805137728,"128":-0.9885807082014163,"129":0.7226966571146566,"130":0.8043461028889947,"131":-0.52246085285188,"132":-0.8851807577633817,"133":0.6342871705516914,"134":-0.48545223579024277,"135":0.24593056660137116,"136":0.6632216764273692,"137":-0.44949652057086653,"138":0.847111477296057,"139":-0.6071544312198895,"140":-0.3824417425867659,"141":0.18835280852943137,"142":1.4821327794481103,"143":-1.097778459489924,"144":0.842879404714131,"145":-0.5437817845243113,"146":0.3445885409290197,"147":-0.12133025273088854,"148":1.0048953961573999,"149":-0.7389180800533567,"150":-0.8889052091433776,"151":0.6431065661011466,"152":-1.1891137907609863,"153":0.8936487258928905,"154":-2.143923263663479,"155":1.7034064530727302,"156":-1.5277002528838854,"157":1.2116897027790468,"158":-1.3985239697445524,"159":1.039339354672856,"160":0.7694683602036536,"161":-0.543062715549996,"162":-0.3207317900204909,"163":0.12731500935852338,"164":-0.6121209219397552,"165":0.46594868711049287,"166":0.7658149166907521,"167":-0.4832495352782254,"168":1.16748530622604,"169":-0.8816730596030986,"170":-0.8226605207540302,"171":0.582723104028251,"172":2.180551963807934,"173":-1.709774850919218,"174":-0.9470930171215144,"175":0.6557633124248252,"176":0.8567193784127423,"177":-0.6133532615648694,"178":-0.7264195465485533,"179":0.5267555138990674,"180":-1.022969801474229,"181":0.7562216945099024,"182":0.843539872658659,"183":-0.6029568734685691,"184":0.3762242195306292,"185":-0.13537058775686014,"186":1.2330438466873501,"187":-0.9362329090460044,"188":-0.415446757715514,"189":0.18992948766528395,"190":0.8928636660748148,"191":-0.6567046853644329,"192":0.7559863454235641,"193":-0.5264079021130015,"194":0.2697733810134778,"195":-0.12762899980785006,"196":-0.7972529575511078,"197":0.5664307046570213,"198":1.9885032705393102,"199":-1.5789333014071312}},"b1":{"n":100,"d":1,"w":{"0":0.05382154621130466,"1":0.02697693615659217,"2":-0.024772239883103404,"3":-0.015539803412467138,"4":0.01090043689901945,"5":-0.02750573088565909,"6":-0.03424409831012693,"7":0.029046455148248523,"8":0.01925306991237558,"9":0.08732849891543451,"10":0.021620914605659226,"11":-0.04888419778242052,"12":0.028795618400991138,"13":-0.022939343210355477,"14":-0.008058918735565882,"15":-0.02068203460939037,"16":0.03886821923971765,"17":-0.02870698798875718,"18":0.03910506158935402,"19":0.019574050696554702,"20":-0.02538137963097739,"21":0.027156752816169426,"22":0.02270353713080726,"23":0.025823923903971306,"24":-0.005377407433613239,"25":0.014309537917519623,"26":0.0092965341106165,"27":-0.017987552703161987,"28":-0.012806190958626909,"29":-0.03004116469599781,"30":-0.022131904670887364,"31":-0.030263889120693083,"32":0.024291451554796315,"33":-0.0005274678602648842,"34":-0.0141423210287536,"35":-0.016213535623313898,"36":-0.07715529267315753,"37":-0.06391377433337561,"38":0.026594638806486198,"39":0.011595334291810576,"40":0.03149377689480911,"41":-0.008572195474988404,"42":0.025425631714001824,"43":0.02215926176579269,"44":0.02476226610516513,"45":0.024671786329737884,"46":-0.029491996859640265,"47":-0.03148294422267529,"48":-0.04106281799561849,"49":-0.023576793136382865,"50":0.02118936572584651,"51":-0.01195205106452103,"52":-0.012101948725996835,"53":0.035526602151032025,"54":0.024545808430048548,"55":0.01871369018179502,"56":-0.029064712133443634,"57":-0.027888903985354697,"58":0.008196956467945915,"59":0.032907707085175875,"60":0.002579231694952808,"61":-0.027060463260686642,"62":0.026557496445313074,"63":0.028351110881483583,"64":-0.029629386820183345,"65":0.024303481611028868,"66":-0.026471433302675308,"67":-0.01554113077780965,"68":0.02033822673196866,"69":0.025450056111450407,"70":-0.011972416914327922,"71":0.04505357709572033,"72":0.025317442894440215,"73":0.010739828881229188,"74":0.0303784086977341,"75":-0.02707728060206731,"76":-0.03584341158071692,"77":-0.06520988131443374,"78":-0.04656444588795441,"79":-0.042467155068592555,"80":0.023166587178074734,"81":-0.010328636802244192,"82":-0.018526440621756218,"83":0.023353007095933416,"84":0.03532575728832253,"85":-0.024368620795798303,"86":0.06648195486072196,"87":-0.027971546534261715,"88":0.025757977378490622,"89":-0.022588941637681038,"90":-0.03145752420310643,"91":0.025541605828333553,"92":0.011513839415291723,"93":0.036970401145845315,"94":-0.012605990856484728,"95":0.02741584319128947,"96":0.022882307998870345,"97":0.00842896885010921,"98":-0.02401498773499679,"99":0.06021900243397062}},"W2":{"n":3,"d":100,"w":{"0":0.09487928979887164,"1":0.3355089143482673,"2":-0.0812638213970898,"3":-0.5256635361089573,"4":-0.5556314085481892,"5":0.40394423036231436,"6":0.5571349948395765,"7":-0.17780244709483806,"8":-0.11364117036506631,"9":0.11586744483910427,"10":-0.2872104308251436,"11":0.6100759770287104,"12":-0.18305592638807922,"13":-0.2759535010463474,"14":0.09472110007453965,"15":-0.016731162977126464,"16":-0.5293181199334227,"17":0.4116757975694604,"18":-0.6048055570231042,"19":-0.09422899828472589,"20":0.41075977840586414,"21":-0.41038643850247974,"22":-0.018541210133521266,"23":-0.12807433475384888,"24":-1.562718641541767,"25":-0.13920706185792092,"26":-0.2023750976093037,"27":-0.4536088882542191,"28":-0.45024887701791905,"29":0.3637608347317815,"30":-0.43643606880446556,"31":0.46407289994910866,"32":0.1707869333012293,"33":0.2089028947321831,"34":-0.5579447786043734,"35":-0.45691492569619097,"36":-1.500109854939811,"37":-0.41644944027028813,"38":-0.40959360448330273,"39":0.41203146940504604,"40":0.23632590530434466,"41":0.2964731717704809,"42":-0.32566849764443867,"43":-0.13688030444809343,"44":-0.3163635176541344,"45":0.2742399129037771,"46":-0.44155541364721257,"47":-0.420659724513906,"48":0.5299835329881291,"49":-0.6227616844401728,"50":0.30447270938819504,"51":0.17314421282247427,"52":0.8260879073093176,"53":-0.5487560314636256,"54":0.1705588495709553,"55":-0.2289063365255088,"56":0.325010402561942,"57":-0.2597777685742738,"58":0.013182479940551052,"59":0.3756548825156285,"60":0.027923660891345483,"61":0.0219577271502901,"62":-0.1294359244021419,"63":0.015357868215760925,"64":0.4192313947562617,"65":0.5402171716317364,"66":0.10463693893240507,"67":-0.5250060662546585,"68":-0.26285870391994887,"69":-0.22928784920873363,"70":0.5478599338455971,"71":0.3213973562279058,"72":0.3927811101599762,"73":-0.024133146983445302,"74":-0.29084892934647777,"75":0.10754223100089437,"76":-0.2088705773922546,"77":0.7413799171059545,"78":-0.7483407322795476,"79":-0.27892432541790196,"80":-0.1658764640906888,"81":0.08356356760987216,"82":-0.23612338286768533,"83":0.4147308390929283,"84":-0.5252555307222813,"85":0.25859555363820713,"86":1.1018205600782733,"87":-0.20787053283697315,"88":-0.31662111613995997,"89":-0.07331397807872121,"90":0.4226626019623909,"91":-0.2545088563647179,"92":0.0633054539253523,"93":-0.525802665088035,"94":-0.561124173989919,"95":-0.035133144182778596,"96":-0.11889224391450286,"97":-0.2527609283695178,"98":0.3523870595819859,"99":0.1936286007517183,"100":0.2113424570951516,"101":0.12151754797601108,"102":-0.016497920523794705,"103":-0.4110457067539475,"104":-0.5103715461700739,"105":0.3624884220949662,"106":0.46706843776661544,"107":-0.17067052236728616,"108":-0.09296783990175785,"109":0.11813182595413084,"110":-0.2528791143298341,"111":0.5055996271289357,"112":-0.17254828450556445,"113":-0.26733494097314653,"114":0.06104451767045143,"115":-0.03588620039496104,"116":-0.434743185728584,"117":0.2904652666531264,"118":-0.5158491069702467,"119":-0.07504435825311795,"120":0.3564984183663863,"121":-0.33038168641958227,"122":-0.00689667569214104,"123":-0.0820035341499265,"124":-1.3296039317965633,"125":-0.13481435835816627,"126":-0.13547772619979354,"127":-0.38587892305189725,"128":-0.36371799890300244,"129":0.32332696349965867,"130":-0.28632110607182226,"131":0.38326617380233935,"132":0.13612803439221474,"133":0.12481841171524961,"134":-0.42770209389168956,"135":-0.4173416938844734,"136":-1.0792364811467312,"137":-0.3736948683245353,"138":-0.32684697448949074,"139":0.24528011628246965,"140":0.21392783033481005,"141":0.21660263156831397,"142":-0.28484800725522924,"143":-0.13164488167062588,"144":-0.28653588679557285,"145":0.15495529860388124,"146":-0.45206499540059086,"147":-0.39568788957577605,"148":0.44649828350250226,"149":-0.5464795893657014,"150":0.15888159158523965,"151":0.16853330657211515,"152":0.734814447138278,"153":-0.40684850113546317,"154":0.13139174683640406,"155":-0.23156893758647282,"156":0.267501530588541,"157":-0.17811426393888644,"158":0.008871129596563943,"159":0.33086261265103334,"160":-0.008502912812532525,"161":-0.025778957323210186,"162":-0.14339245075106383,"163":0.13500148402656578,"164":0.39945455221862475,"165":0.40276270219519666,"166":0.05667832900844599,"167":-0.37730010446354517,"168":-0.2400291879953444,"169":-0.20384611046061915,"170":0.4897726686153305,"171":0.21880885254277788,"172":0.4139908991954671,"173":-0.015781660575548875,"174":-0.2326531889310527,"175":0.042353866096296586,"176":-0.29836683583077317,"177":0.5453633928517828,"178":-0.5835282424328839,"179":-0.39609411057717253,"180":-0.15513915211760967,"181":0.054137324617028956,"182":-0.21132147246829808,"183":0.4249465091740853,"184":-0.46950972955289605,"185":0.22551116471933438,"186":0.8757229482397476,"187":-0.21858676585292877,"188":-0.2628112752288246,"189":-0.10306526554922751,"190":0.3646480276144266,"191":-0.20886343475091187,"192":0.05916737147877671,"193":-0.4536522882720143,"194":-0.4672445015801018,"195":-0.01821448727676269,"196":-0.10128945757379788,"197":-0.1975283773795532,"198":0.3402114006478605,"199":0.26854001707644487,"200":0.15506199014296457,"201":0.27904985109976926,"202":-0.101833039901569,"203":-0.4799852700769914,"204":-0.5617743378294859,"205":0.42195539153631473,"206":0.42882743020020464,"207":-0.15350673273425583,"208":-0.09112782970785274,"209":0.11813063190918496,"210":-0.2943902576534996,"211":0.4335670744719278,"212":-0.16410889669517245,"213":-0.2406463040880852,"214":0.13917821312837417,"215":0.005883148263670569,"216":-0.467621792311882,"217":0.3257778069073786,"218":-0.43767693043634004,"219":-0.06766312634222467,"220":0.363640738145487,"221":-0.4075167515672287,"222":-0.02064668618648403,"223":-0.097760752398526,"224":-1.5480503171183224,"225":-0.15151737834107395,"226":-0.2565089867866414,"227":-0.3578972986690518,"228":-0.42563049363223976,"229":0.32739944948478844,"230":-0.4251875197563234,"231":0.3035363067126687,"232":0.2385143751553803,"233":0.22962305034936373,"234":-0.49290868433708096,"235":-0.3787687320084377,"236":-1.24807344616026,"237":-0.4199048764012137,"238":-0.34175075253549303,"239":0.35034396957061814,"240":0.17455773393744628,"241":0.32619003676687336,"242":-0.28208690185192803,"243":-0.08716829711076432,"244":-0.281165896166046,"245":0.28683889837273585,"246":-0.30110768750982825,"247":-0.336831252218911,"248":0.36595396998849494,"249":-0.4644138101529646,"250":0.28052653282647716,"251":0.16525665031663492,"252":0.8352795905979845,"253":-0.4497824262657257,"254":0.15361767137645266,"255":-0.21898574909681393,"256":0.290723265761372,"257":-0.19810628062477306,"258":-0.021403880592453402,"259":0.30010405001729523,"260":0.10672156491044307,"261":-0.04679660395128467,"262":-0.10937501581697602,"263":-0.04142536331936369,"264":0.39082567503095095,"265":0.4887010282311839,"266":0.1280213432242454,"267":-0.48094741553510056,"268":-0.20462792014811987,"269":-0.1909167011960334,"270":0.5106311791586162,"271":0.34766677730907053,"272":0.26951540642103294,"273":-0.07237752870240656,"274":-0.2715990794817476,"275":0.09004326682167543,"276":-0.15628101755152324,"277":0.5549766191154938,"278":-0.6777299731751526,"279":-0.20620459382313633,"280":-0.14812148031217598,"281":0.086708548534637,"282":-0.2769222353346122,"283":0.28940881701567517,"284":-0.43550527989428145,"285":0.25733647391775266,"286":0.9665710324990289,"287":-0.2559763941332242,"288":-0.2717598069156352,"289":-0.05083040394794037,"290":0.36528514483144164,"291":-0.2199384059057956,"292":0.010234172347682268,"293":-0.47060141939647093,"294":-0.4839321931783828,"295":-0.026271561640313894,"296":-0.1390303503633807,"297":-0.2604500060907967,"298":0.2876625539443432,"299":0.272547394579884}},"b2":{"n":3,"d":1,"w":{"0":1.6945134370848944,"1":1.424268576044991,"2":1.619562605391085}}}}